{"learner":{"attributes":{"scikit_learn":"{\"_estimator_type\": \"classifier\"}"},"feature_names":[],"feature_types":[],"gradient_booster":{"model":{"gbtree_model_param":{"num_parallel_tree":"1","num_trees":"15"},"iteration_indptr":[0,3,6,9,12,15],"tree_info":[0,1,2,0,1,2,0,1,2,0,1,2,0,1,2],"trees":[{"base_weights":[-1.4101103E-2,4.009216E-1,-5.2452073E-2,1.2E-1,1.823204E-1,2.0111728E-1,-1.2713268E-1,-2.4705887E-1,5.142857E-1,8.4615386E-1,2.0978978E-2,2.1161821E-1,-1.7791803E-1,-5.217392E-2,6E-2,-2.0000003E-2,9.130435E-2,-4.2857148E-2,1.02857135E-1,4.468085E-2,-1.8181823E-2,6.9230765E-2,-2.2556396E-2,-1.9795008E-2,8.1818186E-2],"categories":[],"categories_nodes":[],"categories_segments":[],"categories_sizes":[],"default_left":[0,0,0,0,0,0,0,0,0,0,0,0,0,0,0,0,0,0,0,0,0,0,0,0,0],"id":0,"left_children":[1,3,5,-1,7,9,11,13,15,17,19,21,23,-1,-1,-1,-1,-1,-1,-1,-1,-1,-1,-1,-1],"loss_changes":[4.536016E0,3.9929323E0,4.959635E0,0E0,2.9936767E0,6.915264E0,3.5108624E0,2.5104861E0,3.5055904E0,3.4637365E0,4.19759E0,5.783479E0,3.6760664E0,0E0,0E0,0E0,0E0,0E0,0E0,0E0,0E0,0E0,0E0,0E0,0E0],"parents":[2147483647,0,0,1,1,2,2,4,4,5,5,6,6,7,7,8,8,9,9,10,10,11,11,12,12],"right_children":[2,4,6,-1,8,10,12,14,16,18,20,22,24,-1,-1,-1,-1,-1,-1,-1,-1,-1,-1,-1,-1],"split_conditions":[-1.376868E0,-1.5437247E0,-7.402983E-1,1.2E-1,-3.1863403E-1,-9.0688974E-1,-1.2899939E0,6.501114E-1,-4.3168047E-1,-9.151775E-1,-4.095868E-1,-8.8321164E-2,1.9078292E0,-5.217392E-2,6E-2,-2.0000003E-2,9.130435E-2,-4.2857148E-2,1.02857135E-1,4.468085E-2,-1.8181823E-2,6.9230765E-2,-2.2556396E-2,-1.9795008E-2,8.1818186E-2],"split_indices":[16,7,0,0,20,21,31,23,6,26,19,15,15,0,0,0,0,0,0,0,0,0,0,0,0],"split_type":[0,0,0,0,0,0,0,0,0,0,0,0,0,0,0,0,0,0,0,0,0,0,0,0,0],"sum_hessian":[2.8266666E2,2.311111E1,2.5955554E2,3.9999998E0,1.911111E1,5.8666664E1,2.0088887E2,8.444444E0,1.0666666E1,1.1999999E1,4.6666664E1,2.5777777E1,1.751111E2,6.666666E0,1.7777777E0,3.9999998E0,6.666666E0,1.3333333E0,1.0666666E1,1.4666666E1,3.1999998E1,1.1999999E1,1.3777777E1,1.7244443E2,2.6666665E0],"tree_param":{"num_deleted":"0","num_feature":"42","num_nodes":"25","size_leaf_vector":"1"}},{"base_weights":[1.5593719E-2,1.7948714E-1,-1.0295132E-1,2.2388056E-1,-6.31579E-2,-1.3783206E-1,5.753424E-1,-1.0843378E-1,3.2941172E-1,-5.6652408E-2,-5.3164566E-1,-4.2857148E-2,8.3606553E-1,-3.219513E-2,7.358491E-2,-8.450708E-3,4.812834E-2,7.682454E-3,-3.2061074E-2,-6.589597E-2,-1.6438361E-2,1.0344825E-2,1.1707317E-1],"categories":[],"categories_nodes":[],"categories_segments":[],"categories_sizes":[],"default_left":[0,0,0,0,0,0,0,0,0,0,0,0,0,0,0,0,0,0,0,0,0,0,0],"id":1,"left_children":[1,3,5,7,-1,9,11,13,15,17,19,-1,21,-1,-1,-1,-1,-1,-1,-1,-1,-1,-1],"loss_changes":[5.4175124E0,4.3541E0,3.909493E0,3.9518156E0,0E0,4.9180717E0,2.481345E0,5.2243533E0,5.3839874E0,4.5852633E0,1.122961E0,0E0,1.5406804E0,0E0,0E0,0E0,0E0,0E0,0E0,0E0,0E0,0E0,0E0],"parents":[2147483647,0,0,1,1,2,2,3,3,5,5,6,6,7,7,8,8,9,9,10,10,12,12],"right_children":[2,4,6,8,-1,10,12,14,16,18,20,-1,22,-1,-1,-1,-1,-1,-1,-1,-1,-1,-1],"split_conditions":[-2.3275667E-1,1.9692463E0,1.7343528E0,-7.081721E-1,-6.31579E-2,9.7161514E-1,-1.3819543E-1,8.275564E-1,-5.6237257E-1,3.3794722E-1,3.736547E-1,-4.2857148E-2,-1.1501731E-1,-3.219513E-2,7.358491E-2,-8.450708E-3,4.812834E-2,7.682454E-3,-3.2061074E-2,-6.589597E-2,-1.6438361E-2,1.0344825E-2,1.1707317E-1],"split_indices":[8,30,28,14,0,4,8,3,4,28,0,0,18,0,0,0,0,0,0,0,0,0,0],"split_type":[0,0,0,0,0,0,0,0,0,0,0,0,0,0,0,0,0,0,0,0,0,0,0],"sum_hessian":[2.768889E2,1.1599999E2,1.6088889E2,1.1066666E2,5.333333E0,1.5377777E2,7.1111107E0,2.6666664E1,8.399999E1,1.2844444E2,2.5333332E1,1.3333333E0,5.7777777E0,2.1777777E1,4.8888884E0,2.2666666E1,6.133333E1,8.577777E1,4.2666664E1,1.8222221E1,7.1111107E0,2.222222E0,3.5555553E0],"tree_param":{"num_deleted":"0","num_feature":"42","num_nodes":"23","size_leaf_vector":"1"}},{"base_weights":[2.9562432E-2,2.4499226E-1,-4.4280488E-2,3.2377738E-1,-5.0769234E-1,9.253503E-3,-3.4736848E-1,-4.7368425E-1,4.0183482E-1,-6.2264156E-2,-2.5544848E-9,4.576271E-1,-4.5423307E-2,-6.382979E-1,-5.8823574E-2,-6.0000002E-2,-2.5544848E-9,9.069767E-2,2.3999996E-2,2.970293E-3,9.176471E-2,-8.843041E-3,5.1428568E-2,-2.5544848E-9,-6.9767445E-2,5.660377E-2,-3.5779823E-2],"categories":[],"categories_nodes":[],"categories_segments":[],"categories_sizes":[],"default_left":[0,0,0,0,0,0,0,0,0,0,0,0,0,0,0,0,0,0,0,0,0,0,0,0,0,0,0],"id":2,"left_children":[1,3,5,7,9,11,13,15,17,-1,-1,19,21,23,25,-1,-1,-1,-1,-1,-1,-1,-1,-1,-1,-1,-1],"loss_changes":[4.4951277E0,4.4405923E0,3.423191E0,4.2917833E0,4.2148054E-1,4.436325E0,2.6207492E0,3.7894738E-1,4.7327156E0,0E0,0E0,3.8441987E0,3.931682E0,5.9376574E-1,3.3784275E0,0E0,0E0,0E0,0E0,0E0,0E0,0E0,0E0,0E0,0E0,0E0,0E0],"parents":[2147483647,0,0,1,1,2,2,3,3,4,4,5,5,6,6,7,7,8,8,11,11,12,12,13,13,14,14],"right_children":[2,4,6,8,10,12,14,16,18,-1,-1,20,22,24,26,-1,-1,-1,-1,-1,-1,-1,-1,-1,-1,-1,-1],"split_conditions":[-6.6428643E-1,1.4004605E0,1.002467E0,-1.3715007E0,5.3819823E-1,-1.3171686E0,4.030252E-3,7.4793196E-1,-6.6622376E-1,-6.2264156E-2,-2.5544848E-9,3.4819952E-1,1.5586084E0,-1.273767E0,-6.7666996E-1,-6.0000002E-2,-2.5544848E-9,9.069767E-2,2.3999996E-2,2.970293E-3,9.176471E-2,-8.843041E-3,5.1428568E-2,-2.5544848E-9,-6.9767445E-2,5.660377E-2,-3.5779823E-2],"split_indices":[2,15,24,16,8,1,3,3,7,0,0,22,8,16,28,0,0,0,0,0,0,0,0,0,0,0,0],"split_type":[0,0,0,0,0,0,0,0,0,0,0,0,0,0,0,0,0,0,0,0,0,0,0,0,0,0,0],"sum_hessian":[2.808889E2,7.111111E1,2.0977777E2,6.4888885E1,6.222222E0,1.791111E2,3.0666664E1,5.333333E0,5.9555553E1,4.8888884E0,1.3333333E0,1.8666666E1,1.6044443E2,1.4666666E1,1.5999999E1,3.9999998E0,1.3333333E0,1.3333332E1,4.622222E1,1.0222221E1,8.444444E0,1.4977777E2,1.0666666E1,1.3333333E0,1.3333332E1,4.8888884E0,1.1111111E1],"tree_param":{"num_deleted":"0","num_feature":"42","num_nodes":"27","size_leaf_vector":"1"}},{"base_weights":[-3.1199751E-2,-1.7825603E-1,7.637158E-2,1.7438486E-1,-2.9506758E-1,1.2109594E-2,5.261461E-1,-2.179754E-1,4.944043E-1,5.069673E-1,-3.408536E-1,1.3837364E-1,-2.2740345E-1,-1.9846183E-1,7.0815E-1,7.296717E-2,-4.4464555E-2,-2.4246095E-2,7.6364666E-2,-4.7104195E-2,1.10655405E-1,2.1735638E-2,-3.9212156E-2,4.9757797E-2,-3.3322237E-3,-3.444883E-2,2.4621857E-2,4.1421585E-2,-5.3922374E-2,8.5757986E-2,-2.0101953E-2],"categories":[],"categories_nodes":[],"categories_segments":[],"categories_sizes":[],"default_left":[0,0,0,0,0,0,0,0,0,0,0,0,0,0,0,0,0,0,0,0,0,0,0,0,0,0,0,0,0,0,0],"id":3,"left_children":[1,3,5,7,9,11,13,15,17,19,21,23,25,27,29,-1,-1,-1,-1,-1,-1,-1,-1,-1,-1,-1,-1,-1,-1,-1,-1],"loss_changes":[4.593908E0,5.102558E0,4.847125E0,4.0177875E0,3.568924E0,4.505821E0,2.9059658E0,3.4783766E0,3.648551E0,3.685728E0,2.6060848E0,6.029891E0,2.9379532E0,1.2652916E0,2.47902E0,0E0,0E0,0E0,0E0,0E0,0E0,0E0,0E0,0E0,0E0,0E0,0E0,0E0,0E0,0E0,0E0],"parents":[2147483647,0,0,1,1,2,2,3,3,4,4,5,5,6,6,7,7,8,8,9,9,10,10,11,11,12,12,13,13,14,14],"right_children":[2,4,6,8,10,12,14,16,18,20,22,24,26,28,30,-1,-1,-1,-1,-1,-1,-1,-1,-1,-1,-1,-1,-1,-1,-1,-1],"split_conditions":[-2.1323872E-1,-6.8574935E-1,1.1079788E0,-1.494613E-1,-1.6629947E0,7.26849E-2,-1.2940868E0,-7.53189E-1,-4.820188E-1,-8.079343E-1,-1.4104792E0,-5.7951707E-1,1.0635862E0,-6.161421E-1,1.2354062E0,7.296717E-2,-4.4464555E-2,-2.4246095E-2,7.6364666E-2,-4.7104195E-2,1.10655405E-1,2.1735638E-2,-3.9212156E-2,4.9757797E-2,-3.3322237E-3,-3.444883E-2,2.4621857E-2,4.1421585E-2,-5.3922374E-2,8.5757986E-2,-2.0101953E-2],"split_indices":[2,3,19,8,29,19,25,22,5,26,25,0,18,7,25,0,0,0,0,0,0,0,0,0,0,0,0,0,0,0,0],"split_type":[0,0,0,0,0,0,0,0,0,0,0,0,0,0,0,0,0,0,0,0,0,0,0,0,0,0,0,0,0,0,0],"sum_hessian":[2.885431E2,1.2162185E2,1.6692125E2,3.0139925E1,9.1481926E1,1.4695222E2,1.9969025E1,1.368288E1,1.6457045E1,4.396465E0,8.708546E1,9.650171E1,5.045052E1,3.9906633E0,1.5978361E1,2.2127743E0,1.1470105E1,4.4306545E0,1.202639E1,1.7524176E0,2.6440473E0,7.052927E0,8.003253E1,3.0595325E1,6.590639E1,4.0669262E1,9.781258E0,1.3492329E0,2.6414304E0,1.3771621E1,2.20674E0],"tree_param":{"num_deleted":"0","num_feature":"42","num_nodes":"31","size_leaf_vector":"1"}},{"base_weights":[1.3111225E-2,9.104083E-2,-1.5468922E-1,3.5678124E-1,1.3940316E-2,-2.3942958E-1,3.521736E-1,7.934816E-1,5.2497976E-2,5.7654047E-1,-5.669674E-2,-3.0715534E-1,2.9011425E-1,9.200094E-1,-3.4177652E-1,1.588254E-2,1.2379755E-1,-2.354333E-2,6.427742E-2,-1.5539847E-2,9.204837E-2,-9.174812E-3,7.347649E-2,5.6035813E-2,-3.4949567E-2,-3.8827665E-2,8.519232E-2,1.2364557E-1,1.025734E-2,-5.9988786E-2,2.487528E-2],"categories":[],"categories_nodes":[],"categories_segments":[],"categories_sizes":[],"default_left":[0,0,0,0,0,0,0,0,0,0,0,0,0,0,0,0,0,0,0,0,0,0,0,0,0,0,0,0,0,0,0],"id":4,"left_children":[1,3,5,7,9,11,13,15,17,19,21,23,25,27,29,-1,-1,-1,-1,-1,-1,-1,-1,-1,-1,-1,-1,-1,-1,-1,-1],"loss_changes":[3.7412658E0,3.9957376E0,3.9827216E0,5.788043E0,6.088823E0,2.8992858E0,5.5968227E0,4.8656693E0,4.7277718E0,4.4450607E0,3.8487232E0,2.765442E0,3.913116E0,1.8503475E0,1.1798872E0,0E0,0E0,0E0,0E0,0E0,0E0,0E0,0E0,0E0,0E0,0E0,0E0,0E0,0E0,0E0,0E0],"parents":[2147483647,0,0,1,1,2,2,3,3,4,4,5,5,6,6,7,7,8,8,9,9,10,10,11,11,12,12,13,13,14,14],"right_children":[2,4,6,8,10,12,14,16,18,20,22,24,26,28,30,-1,-1,-1,-1,-1,-1,-1,-1,-1,-1,-1,-1,-1,-1,-1,-1],"split_conditions":[4.9985704E-1,-7.53189E-1,1.0515329E0,-3.4030938E-1,-1.252028E0,1.2706815E0,-2.0381488E-1,-5.5424653E-2,3.6358678E-1,-2.4262536E-1,4.2067948E-1,-1.7873449E0,-8.292207E-2,7.349126E-1,6.400551E-1,1.588254E-2,1.2379755E-1,-2.354333E-2,6.427742E-2,-1.5539847E-2,9.204837E-2,-9.174812E-3,7.347649E-2,5.6035813E-2,-3.4949567E-2,-3.8827665E-2,8.519232E-2,1.2364557E-1,1.025734E-2,-5.9988786E-2,2.487528E-2],"split_indices":[8,22,29,4,29,23,7,9,29,1,8,5,5,15,28,0,0,0,0,0,0,0,0,0,0,0,0,0,0,0,0],"split_type":[0,0,0,0,0,0,0,0,0,0,0,0,0,0,0,0,0,0,0,0,0,0,0,0,0,0,0,0,0,0,0],"sum_hessian":[2.840264E2,1.9426405E2,8.9762344E1,4.287171E1,1.5139235E2,7.7356964E1,1.2405376E1,1.6944973E1,2.5926739E1,1.6088768E1,1.3530357E2,6.895763E1,8.399342E0,6.6434827E0,5.7618937E0,7.538577E0,9.406395E0,1.7830387E1,8.096352E0,5.3185825E0,1.0770185E1,1.3041211E2,4.8914695E0,2.6396222E0,6.6318E1,3.9448144E0,4.454528E0,4.4198613E0,2.2236214E0,3.9984045E0,1.7634892E0],"tree_param":{"num_deleted":"0","num_feature":"42","num_nodes":"31","size_leaf_vector":"1"}},{"base_weights":[3.3416435E-2,-6.7397274E-2,1.7195025E-1,7.340118E-2,-1.9418238E-1,4.431119E-3,3.9273122E-1,-1.5618648E-1,2.907368E-1,3.7620616E-1,-2.587635E-1,1.9548547E-1,-3.8408726E-1,5.735701E-1,-2.7013963E-1,5.2786738E-2,-3.0803774E-2,-1.896697E-2,5.095156E-2,7.797965E-2,-3.3400502E-2,-3.1030992E-2,5.761754E-2,4.2964242E-2,-7.4601173E-3,-6.447873E-2,1.90508E-2,-1.2722234E-2,7.0873104E-2,5.3777892E-2,-5.5843044E-2],"categories":[],"categories_nodes":[],"categories_segments":[],"categories_sizes":[],"default_left":[0,0,0,0,0,0,0,0,0,0,0,0,0,0,0,0,0,0,0,0,0,0,0,0,0,0,0,0,0,0,0],"id":5,"left_children":[1,3,5,7,9,11,13,15,17,19,21,23,25,27,29,-1,-1,-1,-1,-1,-1,-1,-1,-1,-1,-1,-1,-1,-1,-1,-1],"loss_changes":[4.0822725E0,3.038592E0,4.549226E0,4.0870814E0,3.3912714E0,5.34342E0,6.517062E0,4.3217297E0,4.506689E0,2.9841266E0,3.6613612E0,3.08294E0,3.678113E0,4.070135E0,3.1082397E0,0E0,0E0,0E0,0E0,0E0,0E0,0E0,0E0,0E0,0E0,0E0,0E0,0E0,0E0,0E0,0E0],"parents":[2147483647,0,0,1,1,2,2,3,3,4,4,5,5,6,6,7,7,8,8,9,9,10,10,11,11,12,12,13,13,14,14],"right_children":[2,4,6,8,10,12,14,16,18,20,22,24,26,28,30,-1,-1,-1,-1,-1,-1,-1,-1,-1,-1,-1,-1,-1,-1,-1,-1],"split_conditions":[2.0693605E-1,-1.22839965E-1,1.5293445E-1,2.4721744E-2,-1.3333912E0,4.016232E-1,7.5570387E-1,-7.68437E-1,-5.669959E-1,1.20085865E-1,1.5586084E0,-4.5762703E-2,5.254478E-1,-1.2219676E0,-6.1521095E-1,5.2786738E-2,-3.0803774E-2,-1.896697E-2,5.095156E-2,7.797965E-2,-3.3400502E-2,-3.1030992E-2,5.761754E-2,4.2964242E-2,-7.4601173E-3,-6.447873E-2,1.90508E-2,-1.2722234E-2,7.0873104E-2,5.3777892E-2,-5.5843044E-2],"split_indices":[6,27,22,31,14,15,31,4,19,31,8,14,10,16,2,0,0,0,0,0,0,0,0,0,0,0,0,0,0,0,0],"split_type":[0,0,0,0,0,0,0,0,0,0,0,0,0,0,0,0,0,0,0,0,0,0,0,0,0,0,0,0,0,0,0],"sum_hessian":[2.9046872E2,1.6841986E2,1.2204885E2,7.999937E1,8.84205E1,6.997494E1,5.2073917E1,3.9039948E1,4.095942E1,8.502249E0,7.991825E1,4.724098E1,2.273396E1,4.1018353E1,1.1055564E1,6.6421995E0,3.2397747E1,1.2858052E1,2.8101366E1,5.3589506E0,3.143298E0,7.586306E1,4.055195E0,2.4987131E1,2.2253845E1,1.555454E1,7.17942E0,6.6415415E0,3.4376812E1,2.6798978E0,8.375666E0],"tree_param":{"num_deleted":"0","num_feature":"42","num_nodes":"31","size_leaf_vector":"1"}},{"base_weights":[3.4057524E-2,1.7937616E-1,-8.7485954E-2,-3.2011104E-1,2.3672365E-1,-1.1890862E-1,7.186134E-1,-4.8946527E-1,2.791123E-1,2.89858E-1,-3.0956042E-1,-1.41185E-1,7.9587504E-2,1.1286267E-1,-4.1600645E-2,-6.550505E-2,2.3754627E-2,4.415733E-2,-1.6526387E-4,-1.3722593E-2,3.6153387E-2,-6.33833E-2,1.2629392E-2,4.481608E-2,-1.7449496E-2],"categories":[],"categories_nodes":[],"categories_segments":[],"categories_sizes":[],"default_left":[0,0,0,0,0,0,0,0,0,0,0,0,0,0,0,0,0,0,0,0,0,0,0,0,0],"id":6,"left_children":[1,3,5,7,9,11,13,15,17,19,21,23,-1,-1,-1,-1,-1,-1,-1,-1,-1,-1,-1,-1,-1],"loss_changes":[4.9960194E0,3.7638164E0,3.991769E0,1.5254E0,3.4587617E0,3.1546152E0,3.227295E0,1.4837625E0,1.673252E-1,3.3034887E0,1.602541E0,2.9559348E0,0E0,0E0,0E0,0E0,0E0,0E0,0E0,0E0,0E0,0E0,0E0,0E0,0E0],"parents":[2147483647,0,0,1,1,2,2,3,3,4,4,5,5,6,6,7,7,8,8,9,9,10,10,11,11],"right_children":[2,4,6,8,10,12,14,16,18,20,22,24,-1,-1,-1,-1,-1,-1,-1,-1,-1,-1,-1,-1,-1],"split_conditions":[-1.11125186E-1,-1.2461883E0,2.0683517E0,6.907571E-1,1.329732E0,1.9632403E0,1.1311242E-1,5.964201E-1,-1.6497788E0,-1.0470756E0,1.1958679E-1,-1.5973408E0,7.9587504E-2,1.1286267E-1,-4.1600645E-2,-6.550505E-2,2.3754627E-2,4.415733E-2,-1.6526387E-4,-1.3722593E-2,3.6153387E-2,-6.33833E-2,1.2629392E-2,4.481608E-2,-1.7449496E-2],"split_indices":[11,2,30,18,13,18,0,0,2,8,14,1,0,0,0,0,0,0,0,0,0,0,0,0,0],"split_type":[0,0,0,0,0,0,0,0,0,0,0,0,0,0,0,0,0,0,0,0,0,0,0,0,0],"sum_hessian":[2.8097125E2,1.2775283E2,1.5321841E2,1.2685165E1,1.15067665E2,1.4829037E2,4.9280376E0,1.0032826E1,2.652339E0,1.0529549E2,9.772172E0,1.4559068E2,2.699693E0,3.6238005E0,1.3042374E0,8.252261E0,1.780565E0,1.3173314E0,1.3350075E0,1.5000401E1,9.029509E1,5.342877E0,4.429295E0,7.1223416E0,1.3846834E2],"tree_param":{"num_deleted":"0","num_feature":"42","num_nodes":"25","size_leaf_vector":"1"}},{"base_weights":[-5.2962336E-3,-3.2854833E-2,6.884975E-1,-6.282933E-2,3.970333E-1,-2.7692363E-1,1.0372896E0,-4.3258125E-1,-2.380587E-2,6.514329E-1,-3.9706215E-1,-4.3811392E-2,5.471361E-4,1.5922186E-4,1.2373483E-1,2.7635215E-2,-5.67711E-2,-7.023944E-3,3.4851436E-2,1.3397187E-2,1.0990802E-1,-5.4799553E-2,1.5311353E-3],"categories":[],"categories_nodes":[],"categories_segments":[],"categories_sizes":[],"default_left":[0,0,0,0,0,0,0,0,0,0,0,0,0,0,0,0,0,0,0,0,0,0,0],"id":7,"left_children":[1,3,5,7,9,11,13,15,17,19,21,-1,-1,-1,-1,-1,-1,-1,-1,-1,-1,-1,-1],"loss_changes":[5.445421E0,3.552253E0,3.9512138E0,3.694481E0,3.8907905E0,1.6977596E-1,1.6978741E0,2.4994469E0,4.057913E0,3.0946994E0,3.1857896E-1,0E0,0E0,0E0,0E0,0E0,0E0,0E0,0E0,0E0,0E0,0E0,0E0],"parents":[2147483647,0,0,1,1,2,2,3,3,4,4,5,5,6,6,7,7,8,8,9,9,10,10],"right_children":[2,4,6,8,10,12,14,16,18,20,22,-1,-1,-1,-1,-1,-1,-1,-1,-1,-1,-1,-1],"split_conditions":[1.7714874E0,1.5171418E0,-1.0909595E0,-1.3492069E0,6.9165117E-1,-4.3721896E-1,-1.5477118E0,-1.0578502E0,1.2354062E0,-3.2248385E-2,1.45662E-1,-4.3811392E-2,5.471361E-4,1.5922186E-4,1.2373483E-1,2.7635215E-2,-5.67711E-2,-7.023944E-3,3.4851436E-2,1.3397187E-2,1.0990802E-1,-5.4799553E-2,1.5311353E-3],"split_indices":[27,16,17,7,27,10,24,29,25,14,29,0,0,0,0,0,0,0,0,0,0,0,0],"split_type":[0,0,0,0,0,0,0,0,0,0,0,0,0,0,0,0,0,0,0,0,0,0,0],"sum_hessian":[2.8261954E2,2.7273856E2,9.88097E0,2.5575928E2,1.697929E1,2.6770945E0,7.203875E0,2.3453108E1,2.3230617E2,1.2995618E1,3.9836736E0,1.3532441E0,1.3238504E0,1.329428E0,5.874447E0,3.5873983E0,1.9865711E1,2.0726825E2,2.5037918E1,6.630419E0,6.3651986E0,2.6755211E0,1.3081523E0],"tree_param":{"num_deleted":"0","num_feature":"42","num_nodes":"23","size_leaf_vector":"1"}},{"base_weights":[-1.8084427E-2,-1.496696E-1,1.6277772E-1,-2.947137E-1,2.3453562E-2,7.603355E-2,7.2606605E-1,-4.9445224E-1,-1.396458E-1,-6.51341E-2,1.0154671E-1,3.5786384E-1,-4.045805E-2,1.0410856E0,-6.824612E-2,-6.3758515E-2,-2.0171134E-2,6.658952E-2,-2.2927862E-2,6.2932044E-2,2.6870784E-3,-5.6738492E-2,4.8163753E-2,-1.1733475E-2,6.8199866E-2,1.1774057E-1,1.3916184E-4,-5.3906232E-2,5.609091E-2],"categories":[],"categories_nodes":[],"categories_segments":[],"categories_sizes":[],"default_left":[0,0,0,0,0,0,0,0,0,0,0,0,0,0,0,0,0,0,0,0,0,0,0,0,0,0,0,0,0],"id":8,"left_children":[1,3,5,7,9,11,13,15,17,-1,19,21,23,25,27,-1,-1,-1,-1,-1,-1,-1,-1,-1,-1,-1,-1,-1,-1],"loss_changes":[6.78853E0,4.151285E0,5.816921E0,2.714786E0,4.079858E0,3.470175E0,4.054682E0,1.5008364E0,3.90659E0,0E0,2.7076795E0,3.8102415E0,4.266234E0,1.6227245E0,1.9195281E0,0E0,0E0,0E0,0E0,0E0,0E0,0E0,0E0,0E0,0E0,0E0,0E0,0E0,0E0],"parents":[2147483647,0,0,1,1,2,2,3,3,4,4,5,5,6,6,7,7,8,8,10,10,11,11,12,12,13,13,14,14],"right_children":[2,4,6,8,10,12,14,16,18,-1,20,22,24,26,28,-1,-1,-1,-1,-1,-1,-1,-1,-1,-1,-1,-1,-1,-1],"split_conditions":[2.0693605E-1,1.4151627E-1,1.1098665E0,-1.2542027E-1,-1.2817329E0,-6.1521095E-1,5.4584247E-1,1.2277551E-1,-1.1218054E0,-6.51341E-2,-9.4037294E-1,-1.0958787E0,1.5050972E0,1.0515329E0,3.2854497E-1,-6.3758515E-2,-2.0171134E-2,6.658952E-2,-2.2927862E-2,6.2932044E-2,2.6870784E-3,-5.6738492E-2,4.8163753E-2,-1.1733475E-2,6.8199866E-2,1.1774057E-1,1.3916184E-4,-5.3906232E-2,5.609091E-2],"split_indices":[6,25,28,10,29,2,21,13,19,0,29,25,8,29,0,0,0,0,0,0,0,0,0,0,0,0,0,0,0],"split_type":[0,0,0,0,0,0,0,0,0,0,0,0,0,0,0,0,0,0,0,0,0,0,0,0,0,0,0,0,0],"sum_hessian":[2.832233E2,1.6404547E2,1.1917783E2,8.887929E1,7.516618E1,1.0425756E2,1.4920271E1,3.78881E1,5.0991188E1,7.0352015E0,6.813098E1,2.9884768E1,7.4372795E1,1.0460875E1,4.459397E0,2.4655193E1,1.3232906E1,4.4619503E0,4.6529236E1,7.5244455E0,6.0606537E1,3.1032088E0,2.6781559E1,6.797695E1,6.395846E0,9.13118E0,1.3296945E0,2.6325643E0,1.8268323E0],"tree_param":{"num_deleted":"0","num_feature":"42","num_nodes":"29","size_leaf_vector":"1"}},{"base_weights":[1.22721605E-2,1.7500587E-1,-1.2538035E-1,7.7014405E-1,1.2672509E-1,-1.0050335E-2,-2.6255956E-1,-8.958506E-2,1.1991711E-1,1.8258417E-1,-5.614025E-1,3.5798377E-1,-1.304309E-1,-3.8181227E-1,2.5943756E-1,-4.8005577E-2,4.0993158E-2,4.1201424E-2,-3.6652948E-4,5.3732557E-4,-6.549191E-2,-5.2206445E-2,4.889122E-2,4.69847E-3,-4.4899616E-2,1.154142E-3,-4.836738E-2,-2.7446872E-2,8.590126E-2],"categories":[],"categories_nodes":[],"categories_segments":[],"categories_sizes":[],"default_left":[0,0,0,0,0,0,0,0,0,0,0,0,0,0,0,0,0,0,0,0,0,0,0,0,0,0,0,0,0],"id":9,"left_children":[1,3,5,7,9,11,13,15,-1,17,19,21,23,25,27,-1,-1,-1,-1,-1,-1,-1,-1,-1,-1,-1,-1,-1,-1],"loss_changes":[6.3847904E0,3.6545208E0,2.4411244E0,3.648973E0,4.791217E0,3.8105423E0,4.488252E0,1.0017242E0,0E0,4.8547883E0,5.0194883E-1,2.6986737E0,3.6805952E0,2.3215551E0,4.623948E0,0E0,0E0,0E0,0E0,0E0,0E0,0E0,0E0,0E0,0E0,0E0,0E0,0E0,0E0],"parents":[2147483647,0,0,1,1,2,2,3,3,4,4,5,5,6,6,7,7,9,9,10,10,11,11,12,12,13,13,14,14],"right_children":[2,4,6,8,10,12,14,16,-1,18,20,22,24,26,28,-1,-1,-1,-1,-1,-1,-1,-1,-1,-1,-1,-1,-1,-1],"split_conditions":[-1.11125186E-1,-1.6158704E0,4.3590296E-2,-2.572786E-1,1.4558526E0,-8.704805E-1,9.9479324E-1,-1.2296533E-1,1.1991711E-1,-7.919689E-2,-1.283937E0,-1.5291837E0,4.5637196E-1,-8.776445E-1,5.1535094E-1,-4.8005577E-2,4.0993158E-2,4.1201424E-2,-3.6652948E-4,5.3732557E-4,-6.549191E-2,-5.2206445E-2,4.889122E-2,4.69847E-3,-4.4899616E-2,1.154142E-3,-4.836738E-2,-2.7446872E-2,8.590126E-2],"split_indices":[11,9,6,2,15,0,19,0,0,10,18,13,19,7,0,0,0,0,0,0,0,0,0,0,0,0,0,0,0],"split_type":[0,0,0,0,0,0,0,0,0,0,0,0,0,0,0,0,0,0,0,0,0,0,0,0,0,0,0,0,0],"sum_hessian":[2.8304675E2,1.2958232E2,1.5346443E2,8.601663E0,1.2098066E2,8.395479E1,6.950965E1,3.1268814E0,5.474781E0,1.1257685E2,8.403812E0,2.0206032E1,6.3748756E1,5.6801605E1,1.2708043E1,1.7768681E0,1.3500131E0,4.9898083E1,6.267877E1,1.3237162E0,7.0800962E0,2.2299306E0,1.79761E1,4.1492973E1,2.2255785E1,1.1865991E1,4.4935616E1,7.0089655E0,5.699077E0],"tree_param":{"num_deleted":"0","num_feature":"42","num_nodes":"29","size_leaf_vector":"1"}},{"base_weights":[-1.1735439E-2,-3.107232E-1,3.0091114E-2,2.4278826E-1,-4.455118E-1,-9.028013E-2,1.3679777E-1,7.559709E-1,-5.4043096E-2,-6.928944E-2,-1.14867166E-1,2.1813797E-2,-4.0669668E-1,-6.35338E-2,1.7518204E-1,1.04532175E-1,-2.075318E-3,-4.710887E-2,6.930115E-2,8.47699E-2,-1.7639141E-3,3.943039E-2,-4.80368E-2,4.057562E-2,4.684133E-3],"categories":[],"categories_nodes":[],"categories_segments":[],"categories_sizes":[],"default_left":[0,0,0,0,0,0,0,0,0,0,0,0,0,0,0,0,0,0,0,0,0,0,0,0,0],"id":10,"left_children":[1,3,5,7,9,11,13,15,-1,-1,17,19,21,-1,23,-1,-1,-1,-1,-1,-1,-1,-1,-1,-1],"loss_changes":[3.6897771E0,2.8094294E0,3.340275E0,3.5185318E0,2.3308506E0,4.348582E0,4.193643E0,1.1659842E0,0E0,0E0,4.300995E0,2.9897316E0,2.081151E0,0E0,3.8871908E0,0E0,0E0,0E0,0E0,0E0,0E0,0E0,0E0,0E0,0E0],"parents":[2147483647,0,0,1,1,2,2,3,3,4,4,5,5,6,6,7,7,10,10,11,11,12,12,14,14],"right_children":[2,4,6,8,10,12,14,16,-1,-1,18,20,22,-1,24,-1,-1,-1,-1,-1,-1,-1,-1,-1,-1],"split_conditions":[-1.253262E0,-9.464403E-1,-1.9163476E-2,2.1764444E-2,-4.856682E-2,5.964896E-1,-1.44627E0,-2.6607195E-1,-5.4043096E-2,-6.928944E-2,3.8473707E-1,-1.4516041E0,-1.31299E0,-6.35338E-2,-4.1258886E-1,1.04532175E-1,-2.075318E-3,-4.710887E-2,6.930115E-2,8.47699E-2,-1.7639141E-3,3.943039E-2,-4.80368E-2,4.057562E-2,4.684133E-3],"split_indices":[31,8,11,14,10,6,20,6,0,0,9,10,5,0,28,0,0,0,0,0,0,0,0,0,0],"split_type":[0,0,0,0,0,0,0,0,0,0,0,0,0,0,0,0,0,0,0,0,0,0,0,0,0],"sum_hessian":[2.933017E2,3.520657E1,2.5809512E2,6.737533E0,2.8469036E1,1.2135437E2,1.3674077E2,4.091489E0,2.6460443E0,1.5658232E1,1.2810804E1,9.029682E1,3.1057549E1,5.739206E0,1.3100156E2,2.7290394E0,1.3624493E0,9.179936E0,3.630868E0,3.1828356E0,8.711398E1,2.2493203E0,2.8808228E1,4.6070587E1,8.493097E1],"tree_param":{"num_deleted":"0","num_feature":"42","num_nodes":"25","size_leaf_vector":"1"}},{"base_weights":[-1.5234202E-2,-1.7172132E-1,1.0019134E-1,9.527559E-2,-2.0259102E-1,5.1149315E-1,3.5106827E-2,2.474893E-1,-2.81695E-1,7.882672E-1,-5.901779E-2,-4.928363E-1,8.0060914E-2,8.707594E-4,9.3233965E-2,1.0651037E-2,-3.461624E-2,9.1224425E-2,-4.2705894E-2,-6.523575E-2,9.428939E-3,3.575433E-2,-1.4748039E-3],"categories":[],"categories_nodes":[],"categories_segments":[],"categories_sizes":[],"default_left":[0,0,0,0,0,0,0,0,0,0,0,0,0,0,0,0,0,0,0,0,0,0,0],"id":11,"left_children":[1,3,5,-1,7,9,11,13,15,17,-1,19,21,-1,-1,-1,-1,-1,-1,-1,-1,-1,-1],"loss_changes":[5.0103655E0,4.279147E0,4.257702E0,0E0,4.178096E0,7.0964046E0,3.3377614E0,2.8997188E0,2.5047894E0,3.0729408E0,0E0,1.095953E0,3.3971264E0,0E0,0E0,0E0,0E0,0E0,0E0,0E0,0E0,0E0,0E0],"parents":[2147483647,0,0,1,1,2,2,4,4,5,5,6,6,7,7,8,8,9,9,11,11,12,12],"right_children":[2,4,6,-1,8,10,12,14,16,18,-1,20,22,-1,-1,-1,-1,-1,-1,-1,-1,-1,-1],"split_conditions":[-1.9042106E-1,-2.2034733E0,-1.0578946E0,9.527559E-2,-9.624578E-1,1.1379777E0,-1.3715007E0,5.562278E-1,-1.0386721E0,1.2345763E0,-5.901779E-2,5.7834E-1,-7.37649E-1,8.707594E-4,9.3233965E-2,1.0651037E-2,-3.461624E-2,9.1224425E-2,-4.2705894E-2,-6.523575E-2,9.428939E-3,3.575433E-2,-1.4748039E-3],"split_indices":[10,2,24,0,30,10,16,2,14,31,0,4,23,0,0,0,0,0,0,0,0,0,0],"split_type":[0,0,0,0,0,0,0,0,0,0,0,0,0,0,0,0,0,0,0,0,0,0,0],"sum_hessian":[2.7543625E2,1.1671425E2,1.58722E2,2.3205547E0,1.1439369E2,2.074773E1,1.3797427E2,1.6781702E1,9.761199E1,1.6809214E1,3.9385169E0,1.0044778E1,1.279295E2,1.3194119E1,3.5875816E0,1.3808526E1,8.380347E1,1.5479511E1,1.3297027E0,7.8113437E0,2.2334342E0,3.187323E1,9.605627E1],"tree_param":{"num_deleted":"0","num_feature":"42","num_nodes":"23","size_leaf_vector":"1"}},{"base_weights":[-5.6924103E-3,1.8018001E-1,-8.6547785E-2,-5.2761495E-2,4.173108E-1,-6.043705E-1,-5.0149843E-2,-3.4623733E-1,2.1109593E-1,5.1042813E-1,-4.0213472E-1,2.490033E-3,-6.750507E-2,3.353219E-1,-1.0641727E-1,-6.120038E-2,6.32219E-3,-3.0552635E-2,4.4559274E-2,6.950673E-2,1.0514561E-2,-5.553887E-2,1.8846011E-3,-5.95781E-2,5.2520312E-2,-2.2671426E-2,7.727132E-3],"categories":[],"categories_nodes":[],"categories_segments":[],"categories_sizes":[],"default_left":[0,0,0,0,0,0,0,0,0,0,0,0,0,0,0,0,0,0,0,0,0,0,0,0,0,0,0],"id":12,"left_children":[1,3,5,7,9,11,13,15,17,19,21,-1,-1,23,25,-1,-1,-1,-1,-1,-1,-1,-1,-1,-1,-1,-1],"loss_changes":[4.3462963E0,4.8650813E0,3.7671888E0,3.5667527E0,3.5290875E0,6.013155E-1,4.1424136E0,2.404275E0,3.0895076E0,2.886922E0,3.333208E-1,0E0,0E0,4.6194983E0,3.6852775E0,0E0,0E0,0E0,0E0,0E0,0E0,0E0,0E0,0E0,0E0,0E0,0E0],"parents":[2147483647,0,0,1,1,2,2,3,3,4,4,5,5,6,6,7,7,8,8,9,9,10,10,13,13,14,14],"right_children":[2,4,6,8,10,12,14,16,18,20,22,-1,-1,24,26,-1,-1,-1,-1,-1,-1,-1,-1,-1,-1,-1,-1],"split_conditions":[-4.8293933E-1,2.0882216E-1,-1.593637E0,-6.495601E-2,1.2485898E0,-1.6724228E0,-1.1218513E0,-1.582339E-2,-6.072683E-1,5.050496E-1,2.0314963E-1,2.490033E-3,-6.750507E-2,-1.0995383E0,2.4182267E-1,-6.120038E-2,6.32219E-3,-3.0552635E-2,4.4559274E-2,6.950673E-2,1.0514561E-2,-5.553887E-2,1.8846011E-3,-5.95781E-2,5.2520312E-2,-2.2671426E-2,7.727132E-3],"split_indices":[11,5,13,27,18,0,7,12,15,7,29,0,0,27,1,0,0,0,0,0,0,0,0,0,0,0,0],"split_type":[0,0,0,0,0,0,0,0,0,0,0,0,0,0,0,0,0,0,0,0,0,0,0,0,0,0,0],"sum_hessian":[2.8716052E2,8.6676926E1,2.0048358E2,4.4116913E1,4.2560017E1,1.2141766E1,1.8834181E2,2.073839E1,2.3378523E1,3.8555847E1,4.004169E0,1.2914655E0,1.08503E1,2.3358704E1,1.6498311E2,1.2275867E1,8.462523E0,7.2041297E0,1.6174393E1,2.5997053E1,1.2558793E1,2.7014563E0,1.3027129E0,3.5945904E0,1.9764112E1,9.955238E1,6.5430725E1],"tree_param":{"num_deleted":"0","num_feature":"42","num_nodes":"27","size_leaf_vector":"1"}},{"base_weights":[-1.7321596E-2,9.371403E-3,-5.3845537E-1,3.2165897E-1,-3.0309722E-2,2.3280954E-2,-6.7424946E-2,1.0560256E0,-5.096479E-2,-1.4807983E-1,9.7155474E-2,1.2207329E-1,-1.3036826E-3,-3.0854983E-2,5.7167303E-2,-8.130227E-3,-4.739169E-2,7.1306676E-2,2.0404065E-3],"categories":[],"categories_nodes":[],"categories_segments":[],"categories_sizes":[],"default_left":[0,0,0,0,0,0,0,0,0,0,0,0,0,0,0,0,0,0,0],"id":13,"left_children":[1,3,5,7,9,-1,-1,11,13,15,17,-1,-1,-1,-1,-1,-1,-1,-1],"loss_changes":[3.8948038E0,3.318183E0,1.585731E0,8.313969E0,3.5841E0,0E0,0E0,1.8131723E0,3.541048E0,2.6594334E0,5.4123726E0,0E0,0E0,0E0,0E0,0E0,0E0,0E0,0E0],"parents":[2147483647,0,0,1,1,2,2,3,3,4,4,7,7,8,8,9,9,10,10],"right_children":[2,4,6,8,10,-1,-1,12,14,16,18,-1,-1,-1,-1,-1,-1,-1,-1],"split_conditions":[1.700947E0,-1.2481551E0,-7.825677E-1,-4.9345496E-1,4.6536162E-2,2.3280954E-2,-6.7424946E-2,1.4377441E0,7.2337776E-1,1.1018804E0,-1.2278626E0,1.2207329E-1,-1.3036826E-3,-3.0854983E-2,5.7167303E-2,-8.130227E-3,-4.739169E-2,7.1306676E-2,2.0404065E-3],"split_indices":[2,22,5,26,21,0,0,5,13,18,13,0,0,0,0,0,0,0,0],"split_type":[0,0,0,0,0,0,0,0,0,0,0,0,0,0,0,0,0,0,0],"sum_hessian":[2.7862497E2,2.6598306E2,1.2641904E1,2.9185919E1,2.3679715E2,1.7856386E0,1.0856266E1,9.206914E0,1.9979004E1,1.2299526E2,1.13801895E2,7.854865E0,1.3520489E0,1.4489253E1,5.4897513E0,1.031127E2,1.988256E1,1.16913185E1,1.0211057E2],"tree_param":{"num_deleted":"0","num_feature":"42","num_nodes":"19","size_leaf_vector":"1"}},{"base_weights":[-1.0297016E-2,-1.0626921E-1,1.2993994E-1,-1.363224E-1,5.372497E-1,7.4345013E-3,4.4750682E-1,-3.0236644E-1,-1.4438352E-3,9.135373E-1,-4.6593633E-2,2.3339298E-1,-2.504548E-1,7.4814844E-1,4.2332686E-2,1.5054916E-2,-3.5842277E-2,-6.3789375E-3,7.0011586E-2,1.1841034E-3,1.170715E-1,-4.337107E-2,3.8763065E-2,6.61462E-2,-3.8665384E-2,-4.4381555E-2,8.719075E-2,-6.292772E-2,4.9658123E-2],"categories":[],"categories_nodes":[],"categories_segments":[],"categories_sizes":[],"default_left":[0,0,0,0,0,0,0,0,0,0,0,0,0,0,0,0,0,0,0,0,0,0,0,0,0,0,0,0,0],"id":14,"left_children":[1,3,5,7,9,11,13,15,17,19,-1,21,23,25,27,-1,-1,-1,-1,-1,-1,-1,-1,-1,-1,-1,-1,-1,-1],"loss_changes":[3.7596326E0,3.2795122E0,4.4134264E0,3.564679E0,3.2943125E0,4.891747E0,3.816039E0,1.8653331E0,3.9305077E0,1.3460255E0,0E0,4.7701025E0,5.1266117E0,3.0529852E0,4.74055E0,0E0,0E0,0E0,0E0,0E0,0E0,0E0,0E0,0E0,0E0,0E0,0E0,0E0,0E0],"parents":[2147483647,0,0,1,1,2,2,3,3,4,4,5,5,6,6,7,7,8,8,9,9,11,11,12,12,13,13,14,14],"right_children":[2,4,6,8,10,12,14,16,18,20,-1,22,24,26,28,-1,-1,-1,-1,-1,-1,-1,-1,-1,-1,-1,-1,-1,-1],"split_conditions":[2.1563199E-1,1.700947E0,5.811888E-1,-1.2542027E-1,-4.7291717E-1,-8.704495E-3,4.768077E-1,-1.3333912E0,1.5533658E0,-6.861657E-1,-4.6593633E-2,-9.3352216E-1,-1.2058047E0,-1.2516006E0,-3.848594E-1,1.5054916E-2,-3.5842277E-2,-6.3789375E-3,7.0011586E-2,1.1841034E-3,1.170715E-1,-4.337107E-2,3.8763065E-2,6.61462E-2,-3.8665384E-2,-4.4381555E-2,8.719075E-2,-6.292772E-2,4.9658123E-2],"split_indices":[6,2,4,10,6,2,11,14,12,5,0,16,8,11,12,0,0,0,0,0,0,0,0,0,0,0,0,0,0],"split_type":[0,0,0,0,0,0,0,0,0,0,0,0,0,0,0,0,0,0,0,0,0,0,0,0,0,0,0,0,0],"sum_hessian":[2.773168E2,1.647863E2,1.125305E2,1.5818692E2,6.5993776E0,8.194326E1,3.058724E1,7.034545E1,8.784148E1,4.864212E0,1.7351658E0,4.3726124E1,3.821714E1,1.7072706E1,1.3514534E1,7.561938E0,6.2783516E1,8.150724E1,6.3342323E0,1.3116052E0,3.5526066E0,7.870957E0,3.5855167E1,4.4650354E0,3.3752106E1,1.3626308E0,1.5710074E1,5.297228E0,8.217306E0],"tree_param":{"num_deleted":"0","num_feature":"42","num_nodes":"29","size_leaf_vector":"1"}}]},"name":"gbtree"},"learner_model_param":{"base_score":"5E-1","boost_from_average":"1","num_class":"3","num_feature":"42","num_target":"1"},"objective":{"name":"multi:softprob","softmax_multiclass_param":{"num_class":"3"}}},"version":[2,1,4]}